[-0.0893325

0.1099

-0.0510331

0.0384097

0.0552622

-0.0088416

0.144374

0.0715099

0.055318

0.129376

-0.0245007

0.0778944

0.151501

0.0138808

-0.0279757

0.132102

0.0578902

-0.0125327

0.134801

0.0291749

0.164668

0.139873

0.206386

0.0650793

-0.0606186

0.0673834

0.109027

0.033106

0.0356569

0.0337983

0.0441091

0.116087

0.0318564

0.239583

0.119389

0.0360587

-0.00665294

0.0624985

0.119348

0.12426

-0.081907

0.0429033

0.0930441

0.176782

0.0164506

0.0269428

0.0206666

-0.0108975

-0.0237965

-0.00590763

0.0640659

-0.0347414

0.03152

0.164575

0.033094

-0.00457665

-0.0680935

-0.0183802

0.0253079

0.0183847

0.0540525

0.00160486

0.072335

0.207777

-0.00171621

-0.0686192

0.182993

-0.0137295

0.0151988

-0.0357427

0.0125594

0.0565388

0.11288

0.0867528

0.103001

0.0281783

-0.106048

0.0429634

0.0832104

0.271012

-0.021273

0.0291571

0.0736225

-0.0699609

-0.027395

0.0940605

0.0476928

0.0889168

0.0538271

-0.0379204

0.0560217

0.0127631

-0.0469016

0.0865482

0.00872793

0.128225

-0.0526439

0.27264

0.10855

0.0303257

0.027776

0.073638

0.0511774

0.101428

-0.0156529

0.101866

-0.0823507

-0.0365783

0.114997

-0.0200754

0.068574

-0.0532235

-0.0132823

0.0323514

0.0116691

-0.0204997

0.193711

0.0472659

0.0599793

0.129056

-0.0258406

0.0625922

0.0643098

0.000862942

-0.0349745

0.135273

0.102439

0.0143391

0.0530405

0.0291888

0.044012

0.106754

0.087565

0.0424081

-0.00571337

0.0395856

0.168587

0.0245312

-0.0104071

-0.0410834

0.0495959

0.00535688

-0.0810026

0.020493

-0.0341056

0.028204

0.0420632

0.0230009

0.0285951

0.147894

-0.0728171

0.04154

0.0949254

0.0802546

0.0308271

0.0262788

0.061019

0.101819

-0.0338773

0.210864

0.00156738

-0.0390448

0.159108

0.0258891

-0.00857775

-0.0201456

-0.0133113

0.0540815

-0.0206303

0.0811965

0.0846896

0.0459137

0.0631729

-0.0331139

0.0240046

0.066311

0.16017

0.11751

0.0419709

0.0214668

-0.0511626

0.130697

0.050421

-0.0293581

-0.0814635

-0.0106843

0.0164979

-0.0185919

0.0104966

-0.0628241

-0.0592319

0.081949

0.0627469

0.0068518

-0.0294218

0.0837837

0.0607995

0.116479

0.087733

-0.00697535

0.10468

0.024456

0.108857

0.062192

-0.160312

0.0591391

0.229812

-0.0144159

0.0837819

0.0955412

-0.0640335

0.0991964

0.0135542

-0.0128384

0.0997634

0.0218628

0.0990577

0.0320535

-0.010923

0.0233322

0.0681566

0.000195546

0.0621668

0.0223691

0.0197722

0.0179117

-0.0261748

0.010533

0.105158

-0.156668

0.079506

0.162093

0.0255123

0.105362

0.0655487

0.0553428

0.100019

0.108643

0.134969

0.241039

0.214741

0.0240014

0.00188975

0.0679647

-0.0553333

-0.145886

0.0674886

0.136562

-0.0334696

0.0540504

-0.126962

-0.0581997

0.0713405

0.0158221

0.075524

-0.0122379

]