[-0.0426487

0.0790341

-0.0259495

0.099568

0.113474

0.22297

0.162544

0.241538

0.216942

0.141349

0.0177623

0.147606

0.0102002

0.00331076

0.254358

0.238347

0.248151

0.263498

0.265919

0.246816

0.213784

0.177216

-0.0080344

0.0447895

0.343604

0.215342

0.124712

0.0129907

0.0157273

0.0639717

0.287494

-0.0721327

0.122009

0.190286

-0.0709485

-0.0898563

0.135686

0.207841

0.018778

-0.0122595

-0.0133676

0.288082

0.105503

0.00673345

0.268129

0.255117

0.265287

0.1261

0.28992

-0.0454976

-0.0310178

0.0495063

0.115212

-0.0841664

0.128609

0.23043

0.0640309

0.111747

0.113614

0.00913248

-0.0971694

0.229651

0.0848611

0.0678124

0.179067

0.0793839

0.248973

-0.0616025

0.0490646

-0.0556556

0.16352

0.0852221

0.114153

0.202832

-0.0426204

-0.170382

0.194811

0.0604457

0.161643

0.226207

0.12386

0.144774

0.176858

0.351457

-0.04596

0.202081

0.16411

0.106874

0.227643

-0.0246346

0.152951

-0.139069

0.0419052

0.141201

0.178474

0.0506899

0.159346

0.147933

0.0367803

0.207916

0.0231279

0.0539562

0.085893

0.31542

-0.0133184

0.00976401

0.0119366

0.203637

-0.0214299

0.266324

0.129421

0.282829

-0.000653157

-0.0140082

0.0828405

0.0269528

0.268192

-0.0353946

0.034601

0.229671

-0.0900767

-0.00971382

0.264889

-0.090876

0.079011

0.306926

0.065975

0.103753

]