[0.0319589

-0.00308649

0.0262481

0.033408

-0.162055

0.000990864

0.0197027

0.088692

-0.0167044

0.0139151

0.00633875

0.0569997

0.00260071

-0.0885399

-0.0201005

0.0524483

0.0464029

-0.0387311

0.0430877

0.0469612

-0.0173185

-0.0511254

-0.0579356

0.06068

0.000679572

-0.0321572

-0.0222028

0.0557929

-0.0169406

0.0207941

-0.112654

0.0436976

-0.154065

-0.0863742

0.0397093

-0.00346516

0.0697607

-0.0253984

-0.0501832

0.05839

0.0548265

-0.051934

0.00475019

-0.0542035

0.009822

0.101829

0.0444371

0.0247206

0.0145001

0.0418841

0.0189912

0.0157551

0.149623

-0.0772593

0.061354

0.141155

0.0334391

0.0112935

-0.0736413

-0.0326889

-0.00634758

0.0588199

0.033761

0.0085738

-0.0199626

0.1782

0.03539

0.0112902

0.0249982

-0.0554867

-0.0921289

0.0704033

-0.0141458

-0.0362762

0.0649319

0.0334934

0.0280842

0.0334967

-0.0492556

0.10419

0.0288927

0.0335735

-0.0093194

-0.0535934

-0.00939313

0.0779198

-0.0584506

-0.0565251

0.000170677

-0.0156788

0.0135248

0.0500358

-0.0261589

0.0507123

0.0299338

0.0818417

0.0112527

-0.0143704

0.0296779

0.0312364

-0.0332999

0.0288313

0.141041

0.0748031

0.0107236

0.0104684

0.00369561

0.0145811

0.0153759

0.100369

-0.0494715

0.0631653

0.00275513

0.0260604

0.169946

0.22948

0.0847887

-0.100653

0.110209

0.143514

0.00446556

-0.0324779

-0.0842159

0.0569374

-0.0389602

-0.0528364

0.00616509

0.0215804

0.0458434

0.0618796

-0.0673594

-0.0427203

-0.00968696

0.048799

0.00294255

-0.0546376

0.0579899

0.148937

0.00594079

-0.0241076

0.164185

-0.0576939

-0.0336259

0.0104831

0.0808091

0.101031

0.0341536

-0.128894

-0.0219424

-0.0368413

-0.0320927

0.055653

0.142447

-0.0277191

-0.00300282

0.0028444

0.0619295

0.0392454

0.0437093

-0.00510154

-0.00487995

-0.0261995

0.0356411

0.0106596

0.00075698

0.033513

0.00293239

-0.0165295

-0.0457988

0.0268464

-0.0103835

-0.0507698

-0.0386271

0.0739937

0.198313

0.0661458

4.47639e-06

-0.0227614

0.0808443

0.0311206

0.0854035

-0.0179376

-0.00974001

0.0282702

0.030217

0.0487011

-0.0612506

0.0385797

0.0549459

0.17816

-0.0668783

0.104583

0.0724796

0.0109969

0.0464619

-0.0853785

0.0592711

-0.0126821

0.0041581

0.108239

-0.065305

-0.0904856

0.0157588

0.08318

0.096607

0.116129

-0.0743337

0.0109435

0.00222691

0.0449307

0.0216159

0.183487

0.0417219

-0.00547821

0.12112

-0.00820112

-0.00889798

0.0247986

-0.00400148

0.0106387

-0.173366

0.0276793

-0.0987294

0.0279082

0.023499

-0.0245782

0.0171174

-0.0161762

-0.0352

0.0361611

-0.0319995

-0.0143008

0.0977089

0.0246445

-0.0179167

0.0309606

-0.0561413

0.0514958

0.104113

-0.0287004

0.108253

-0.00870423

-0.050286

0.0614882

-0.0422497

-0.00981217

0.0515597

-0.00491951

0.109366

0.0382394

0.141926

-0.13898

0.0186106

0.0209941

-0.143641

0.17332

]