[-0.0102901

0.148979

0.247273

-0.0415912

-0.0493391

0.0794177

0.202444

-0.562162

0.464507

0.00779814

-0.446349

0.0635679

0.821708

0.336016

-0.451624

0.0916145

0.0089623

-0.155391

0.0553666

0.388406

0.0523888

0.200832

0.0738033

-0.0837483

0.126711

-0.314203

0.265891

0.133589

0.331164

0.503997

0.408606

0.0197037

0.187735

0.22736

0.0124411

0.324592

0.365869

-0.0443562

-0.0501982

0.165321

0.0751303

0.445028

0.188069

-0.284587

0.108612

0.0808406

0.611297

0.059313

-0.243942

0.132496

0.152243

-0.0663818

0.200046

-0.321498

0.107466

0.192767

0.163378

-0.203736

-0.448497

0.312723

-0.873564

-0.132532

0.238439

0.206

-0.193943

0.133582

0.121447

0.0671097

0.087828

0.271604

0.117391

-0.215615

-0.064944

0.145131

0.0258927

-0.0318545

-0.417535

0.188894

0.00724111

-0.00519479

-0.159223

0.318448

0.124047

-0.0587736

0.09731

0.253764

-0.0998138

0.365771

-0.0334767

-0.0513841

0.0544769

0.0656511

0.44233

0.383108

0.275409

-0.0224022

0.353253

-0.170647

0.0359589

0.00606453

-0.10514

0.476202

0.204888

0.120336

0.637696

-0.155396

0.184652

-0.198241

0.363908

0.0149765

0.19583

0.45636

0.838701

0.0978962

-0.102308

0.163893

0.0470733

0.301161

-0.247874

-0.111956

-0.00586899

-0.108716

-0.290713

0.75454

0.0888717

-0.0745038

-0.082009

-0.343813

0.157328

-0.248905

-0.742757

-0.104158

0.0128947

-0.219231

0.072239

0.242229

0.15983

-0.110223

-0.191937

0.0220084

-0.0969555

0.0816651

-0.0117164

-0.731298

0.11039

-0.262056

-0.051348

-0.0451747

-0.224712

-0.0161344

0.234498

-0.523939

0.115152

-0.372554

-0.0585752

0.238135

0.132072

0.427726

-0.0765788

-0.0969507

-0.0420991

-0.0204739

0.190148

-0.326771

4.71605e-05

0.777927

0.560422

0.104093

-0.0320948

0.192108

0.211115

-0.22557

-0.132213

0.130785

0.183945

0.140476

0.289879

0.275264

0.138815

0.0172765

0.15856

-0.170145

-0.345613

0.181545

0.0962339

-0.040776

0.379171

-0.758898

0.064883

-0.0421258

0.0614481

-0.257923

0.0577036

0.0541966

0.0323885

0.324445

-0.0849412

0.02095

-0.0456656

-0.202229

-0.0934989

0.239743

0.0484783

-0.190737

-0.14996

-0.0871804

0.0116692

0.00358963

-0.112442

-0.287044

0.0636178

0.0576228

0.154553

0.0513392

-0.0213282

0.321042

0.237144

0.0173607

0.0144244

-0.341334

0.204468

-6.60955e-05

0.393951

0.193029

-0.108569

0.119471

0.133559

0.211751

0.179967

-0.0817798

0.056892

-0.0174734

0.0892122

-0.231792

0.197839

0.00424684

-0.0521243

0.161062

0.049344

0.653997

-0.0362819

-0.0878471

0.155845

-0.253115

0.29636

0.0866241

0.0610714

-0.218068

-0.012879

-0.245687

0.42108

0.210298

0.0251824

0.0335452

0.326408

-0.102293

0.485119

-0.280871

-0.0620878

0.0466759

0.472319

0.228539

-0.000888162

0.0583585

0.0111303

0.388607

0.0431355

-0.0820219

0.0822364

0.122525

-0.073532

-0.100722

0.421457

1.00584

0.0549569

0.076776

0.456128

0.0376691

-0.0177439

0.125935

-0.0669356

0.248267

0.396186

-0.171994

0.0313264

-0.239895

0.234897

-0.0620317

0.19482

-0.185628

-0.00723404

0.06099

0.116779

0.0108809

0.00582495

-0.183137

0.0452526

-0.013459

-0.452152

0.220246

0.44897

0.51502

-0.159756

0.274096

0.254461

0.0860653

0.18135

-0.100956

0.256472

0.0496144

0.249602

0.284872

0.362248

0.0201542

-0.0410888

-0.87113

0.0603734

0.351437

0.229401

0.514736

-0.102119

0.595789

-0.0527121

-0.219888

0.662574

-0.0965222

0.00421675

0.242171

0.332613

0.2448

0.17645

-0.0741556

-0.0102027

-0.119794

0.24614

-0.0562299

0.109966

0.379161

0.155026

0.110233

0.111685

-0.106686

-0.359925

0.181744

0.114543

-0.0643323

0.114134

-0.187664

0.267274

0.117075

0.572537

0.818317

0.130729

0.104311

0.110135

0.0830744

0.145979

0.11459

0.213529

0.314247

0.132908

-0.0177438

0.0292338

-0.0416837

-0.0316114

0.419456

-0.089466

-0.257545

0.0480943

0.118601

0.154778

-0.100371

0.183689

0.112696

0.00944817

-0.404646

0.111021

-0.179428

0.176662

-0.01863

0.0513532

0.0441741

0.136386

-0.239745

0.000188259

0.245883

0.084029

-0.027765

-0.302595

0.0656809

0.0415231

-0.101516

-0.0221426

0.307785

0.0925482

-0.325155

0.0261878

0.0423946

-0.0680995

-0.0735608

-0.276452

0.154447

-0.349738

0.201182

0.0635585

-0.178295

0.292115

-0.0237129

-0.00194789

0.0453888

0.0144419

-0.191646

-0.0495078

0.030853

0.136823

0.0272774

0.359805

0.216456

-0.206784

-0.0381513

-0.00439903

0.0511407

-0.309499

-0.251971

0.0222944

-0.0406682

-0.0496847

0.152465

-0.144472

0.010643

-0.552945

-1.01467

0.0275487

-0.467006

0.303176

0.11045

0.182504

-0.0301657

0.104489

0.0437778

-0.199301

0.275309

-0.0942029

-0.270016

-0.0658984

-0.136881

0.232615

-0.321133

0.0873057

-0.196923

0.374767

-0.181963

-0.0980566

0.275538

-0.274274

0.984211

0.199731

0.232022

0.0554754

-0.033697

-0.0755296

-0.470711

0.119037

0.109352

0.122627

0.184984

0.305851

-0.150233

0.142419

0.291226

0.684186

0.231076

0.0234104

0.100922

-0.287029

0.0502208

0.217874

0.11408

-0.060363

0.600352

0.281706

-0.113855

0.484003

-0.302242

-0.0250953

-0.00945829

0.156616

-0.0725102

0.0695837

0.137312

0.0712425

0.187377

-0.15085

0.0519084

-0.0536815

0.047755

0.0529595

0.300713

0.0453065

0.144643

-0.235241

-0.291466

-0.0476939

-0.271839

0.545147

0.5904

0.266455

0.253088

-1.41803

0.210621

-0.0629024

0.03634

]