[-0.0764114

-0.110066

-0.144156

0.0385552

0.258943

-0.0922753

0.0493529

-0.041741

0.00635194

-0.185582

0.129747

-0.0176564

-0.278483

-0.0194271

0.120381

-0.19906

0.0676208

-0.011325

-0.116123

0.117734

-0.217895

-0.211029

0.377836

0.0500716

-0.305805

-0.0312803

-0.222779

0.0906799

0.162723

-0.0953632

-0.118283

-0.107998

0.184593

0.104118

0.0229272

0.173328

-0.534278

0.270882

0.0437036

0.13275

0.0803814

0.158883

-0.248942

0.199825

-0.0633898

0.0422887

-0.102744

0.157794

-0.202826

-0.0123661

-0.250217

0.0848172

0.345402

-0.103046

0.0253047

-0.225073

-0.115242

-0.0184811

-0.0865337

-0.152338

-0.159866

0.146009

-0.0284517

-0.0384304

0.169768

0.130918

0.352604

0.0207941

-0.174616

0.0483069

0.611899

-0.212147

-0.0914237

0.0598727

-0.0942521

-0.28395

0.271709

0.0855018

0.127392

-0.0592352

-0.110691

0.142203

0.171253

0.0361635

-0.121872

0.416182

-0.11095

-0.0452572

0.187227

-0.022661

-0.00161123

0.380863

0.0609421

-0.105098

0.29609

0.0382681

0.11142

-0.173591

0.0215353

-0.26101

0.231284

-0.278003

0.178786

0.225052

-0.393169

0.0159346

-0.112071

-0.0639499

0.146661

-0.0383977

-0.0108597

-0.159177

-0.0629895

-0.276005

-0.0290328

0.0600047

0.176929

-0.0228436

-0.146527

0.00269977

-0.0831077

0.0161662

-0.0165093

0.370053

0.121387

0.197677

0.246205

0.290223

]