[0.0418459

-0.0647015

0.0147138

-0.0351887

-0.000605623

0.0301617

0.0111217

0.0237881

0.0311265

0.0408862

0.0193398

-0.018134

0.0150102

0.0448954

0.0180458

0.0343209

0.0853897

0.0757457

0.0378429

-0.039315

0.0164495

0.00922567

0.0151573

0.0793475

0.00633696

0.0317859

0.04549

0.058396

-0.00837541

0.0641722

0.0685686

0.0539

0.0491497

-0.0611194

0.026796

-0.00216857

0.0925627

0.00675605

0.0268589

-0.0039424

0.0255692

0.0293095

-0.0549644

0.020116

-0.0131341

0.027695

-0.00879518

0.040513

0.0497371

0.0571764

-0.0428881

0.18827

-0.0170896

0.0011998

-0.0224142

0.111065

0.00963388

0.0335042

0.0148471

-0.00830634

0.0564614

0.0405592

0.0731176

-0.0968188

0.0111127

-0.00104788

-0.06233

0.0532407

0.0174537

0.0347853

0.0483603

-0.01711

0.0536308

-0.00523748

0.0431094

0.0444941

0.0268718

0.0359321

0.055106

-0.0164085

-0.0345263

0.0497594

-0.0285393

0.00613221

0.0110615

-0.0125532

0.0426623

0.112769

-0.0273965

-0.0102339

0.0992177

-0.0380087

-0.025566

-0.0401638

0.0177083

-0.00149663

-0.00603325

0.0227416

0.0786192

0.036002

0.149003

0.0400229

0.0547643

0.070746

0.0246852

-0.0467943

0.0273633

0.00222065

0.07711

-0.0469045

0.0391268

0.0167416

0.0239553

0.0148029

-0.00996548

0.0090231

0.0745104

0.00784048

-0.0174689

0.0702974

0.0033179

-0.00707799

0.00428035

0.00842204

0.0143821

0.0443166

0.0500062

0.122707

0.019682

0.0240405

0.0274689

-0.00699001

0.0816472

0.0818144

-0.0102062

0.0615309

-0.0137273

0.0185832

0.0994164

-0.00162865

0.00261743

0.0227795

0.0428631

0.0392029

0.000204729

0.00567218

0.0127113

0.049903

0.0388298

0.0711385

0.0259387

0.0565066

0.0921376

-0.0509345

-0.0327548

0.0181341

0.064701

-0.0267393

0.00346741

-0.0713386

0.0325845

0.157598

-0.0103462

-0.0267056

0.0343739

0.0599774

0.0458118

0.0189682

0.016445

-0.0262604

-0.00746232

-0.0452959

0.0340341

-0.0021321

-0.0259031

0.0159866

0.00383858

-0.0158358

0.0118691

0.0169412

-0.111012

0.0132161

0.0739237

0.0484945

0.0438962

0.01535

0.0255669

0.0427191

0.00485036

0.025358

0.0409843

0.00295097

-0.0400289

0.0595456

-0.0245407

0.0562392

0.0418837

0.0237286

0.00699217

0.00258516

0.0236301

0.0197948

0.024541

0.0308955

-0.0405573

0.0460736

0.0435176

0.064775

0.0677968

-0.0100332

0.00986365

0.0433279

0.043866

0.00707334

-0.00182246

0.00511751

-0.000592562

0.0129787

0.0716721

0.0160523

0.0458991

0.052801

0.099077

0.0635948

0.0168706

-0.0205811

0.0179683

-0.0348624

0.0511649

-0.0149604

0.103667

-0.0340765

0.138903

0.00628081

0.104196

-0.000803384

-0.0131188

0.047825

0.112641

-0.031986

-0.00534769

0.0486673

0.0378028

0.0211632

-0.0133104

0.0240985

0.00771661

-0.0182085

-0.0199142

-0.0111296

0.0809923

0.0663786

0.0245472

0.0538134

0.0122375

0.0253509

0.036984

0.0213011

-0.00252598

0.0481094

-0.0175184

0.070294

0.0554968

0.0194295

-0.0367747

0.0113715

0.0488728

0.0222419

0.0424483

0.00781584

0.0298089

-0.0333977

-0.00272349

0.00369857

0.0427175

0.00741782

-0.0176017

0.0615386

0.00921036

0.0337138

0.0592282

0.0154952

0.0140964

0.089505

0.00712159

-0.0105533

0.0293837

0.0434398

-0.0247519

-0.00282558

0.101492

-0.0134299

-0.0019322

-0.0140245

0.0193635

0.00994512

0.0169237

0.0360833

0.00276677

0.0498455

0.0345519

-0.00993556

0.0215097

0.0163459

-0.00936793

-0.00713279

0.0976659

0.0503705

0.083464

-0.0106547

-0.00279141

0.00497648

-0.00291994

-0.0489508

0.0140066

0.0220482

0.0135077

0.00850592

-0.0193081

0.0131254

0.0345294

0.0254797

-0.0138702

0.0555467

-0.0290399

0.019176

-0.00784466

0.0618351

0.00418662

0.0341714

-0.00906713

0.0140368

0.0747363

0.013114

-0.0179797

-0.00525901

0.030134

0.0318157

-0.0292743

5.12458e-05

-0.00174583

0.0196553

0.0152899

-0.0146016

0.0805611

0.0193817

0.00259761

-0.020845

-0.00356155

0.00728256

0.0138139

0.114405

0.0906661

0.0822043

0.00525332

0.0606333

0.0467027

-0.0155531

0.0580665

-0.00705203

0.0251397

0.0270147

0.0446729

0.0283829

0.0384399

-0.0032109

0.0152222

-0.0123544

-0.0402473

0.00189185

0.00578458

-0.0559373

-0.0329571

0.0460606

0.000755918

0.0392285

0.0517567

-0.03408

0.0179042

0.017731

-0.00436786

0.0206764

0.0662827

-0.0374322

0.0204615

0.0549091

-0.0200527

-0.0227043

0.0578328

-0.0142562

0.051923

0.0302838

-0.0392404

0.0229383

0.0334548

0.0024286

0.0166886

0.0703928

0.0998478

0.0164102

0.0694751

-0.0130741

0.0333666

-0.00720836

-0.00484228

0.0309667

-0.00326677

0.0125414

0.00683545

-0.037866

-0.0276912

-0.036448

0.0328203

-0.0179541

0.0301278

0.00241942

0.00435879

-0.0066363

0.0997304

-0.00540565

-0.0449309

-0.0413714

-0.0329538

0.0836748

-0.000424716

0.0158913

-0.0214353

0.0288936

0.0938906

0.0273472

0.0533243

0.000976162

0.0873404

0.00102716

0.0143413

0.0236616

-0.000658791

0.016879

0.0105678

-0.0335519

0.0849534

-0.0141178

-0.0338698

0.023272

0.0566661

0.00886564

-0.0211958

0.135944

0.0144885

0.00380483

-0.037055

-0.0554174

0.136663

0.0916612

-0.0137561

0.0562383

0.0228792

-0.0243226

-0.00304975

0.0387822

0.0394554

-0.000371238

0.0647698

0.114312

0.0301426

0.101662

0.0100192

0.0193876

0.0869666

0.0269735

-0.0136409

0.0380587

0.0155752

-0.0329898

0.00380855

0.0492146

0.00889947

0.0245919

0.0280351

-0.0345661

0.0179851

-0.0352868

0.0273848

-0.0493477

-0.0772975

-0.0235253

0.103334

0.0665656

0.0383277

-0.0198275

-0.0150708

-0.0446754

-0.0325727

0.0202275

-0.0815099

0.000267812

-0.0149915

0.0450824

0.0182815

0.0158484

-0.0535197

-0.02753

-0.0556986

0.0213197

0.0253615

0.0246651

0.0263875

-0.034536

0.00387528

0.0524046

-0.0381589

0.0376425

]