[0.0205515

-0.0192079

0.0514344

0.0547953

0.0948974

0.0825054

-0.00907989

0.121443

-0.0138511

-0.0152827

-0.022816

0.0263743

0.0307752

0.142019

0.0620461

-0.0237443

-0.0987567

0.0752833

0.0764369

0.00469755

0.115689

0.0705805

0.0979799

-0.0246998

0.0418647

0.034026

0.0967046

0.00580069

0.0159722

-0.0286904

0.121954

0.0618835

0.0742311

0.28616

0.0493999

0.00795335

0.0451065

-0.00830143

-0.00955432

0.149073

0.187461

-0.0613225

-0.000188427

0.0479992

-0.0675255

0.114992

0.149122

0.0110942

0.0341766

0.1671

0.19431

0.107802

0.00810865

0.019456

0.0955305

0.059623

-0.0654657

0.108635

0.11933

0.0501885

-0.112035

0.124831

0.0289986

-0.0739881

-0.0125834

0.111865

0.0813614

0.0554861

0.0365569

0.0169418

0.0535231

0.0264887

0.0180928

-0.0285685

0.136594

0.0236696

0.0263151

0.061225

0.0497788

0.0246338

0.0208232

-0.054885

-0.00247837

0.0680848

0.0364271

-0.0561851

0.0207445

0.0832795

-0.0321052

0.129678

0.0368218

0.0327743

0.0812321

0.0639336

0.158442

-0.00629587

-0.00357325

-0.011549

0.0181714

0.162126

0.039189

0.0232644

-0.0225585

0.0111865

0.0947978

0.0976906

0.0334466

0.0759988

0.0341762

0.0720086

0.0337923

0.0999749

0.214655

0.205862

0.0780817

0.0669873

0.15295

0.0804459

0.0496947

-0.00803147

-0.0130031

0.246768

0.345783

-0.0297766

-0.00112702

0.0275881

0.0898166

-0.0536997

0.0154239

0.00534656

0.069331

-0.0307337

0.0330105

0.0720686

0.0356183

0.0854565

0.0535521

0.188488

0.0513103

0.0261749

0.0363657

0.0625852

0.0115393

-0.0380326

-0.0326348

0.144302

-0.0226472

-0.0216909

-0.0763696

0.0390156

0.0423933

-0.0637594

-0.0452814

0.00643384

0.0325876

-0.0227783

-0.014358

0.121563

0.0392315

-0.083663

0.0970261

0.132318

0.104569

0.0397551

-0.112523

0.0270752

0.00810746

0.0279527

-0.025471

0.187657

0.149901

0.086868

0.0290246

0.00439798

0.129342

0.0251485

5.73346e-05

0.00838951

0.146575

-0.0240352

0.000306155

-0.0729463

-0.00322115

-0.0094926

0.0771572

-0.0194786

0.205278

0.0918154

0.120826

0.143064

0.153513

0.124219

0.0528524

0.0912631

-0.00384548

0.0277631

0.0128294

0.0573686

0.136786

0.0715635

0.0954748

0.0761031

0.063296

-0.104466

0.0782386

0.0416336

0.0444475

-0.0281952

7.87381e-05

0.0532451

-0.0897604

-0.0219044

0.00561696

-0.0285675

0.0284136

-0.0288056

0.0979207

0.017169

0.0524436

0.0862078

0.0229991

-0.0179578

0.108864

-0.0668306

0.0591973

-0.00217952

0.00427142

-0.0937853

0.262699

0.0454973

0.103729

0.221035

0.0685864

0.0439792

0.00300618

-0.0717122

-0.0298766

0.0913704

-0.0533322

0.0209295

0.00995373

0.0192693

0.0706923

0.0183845

0.0222767

0.0133815

0.0060217

0.018104

-0.00485648

-0.022299

0.00412631

0.0859883

0.0564024

0.125604

-0.0209766

-0.0698128

]