[0.0514606

0.094846

0.217444

0.107433

-0.0807572

0.126731

0.175297

0.102673

0.0792872

0.276104

0.0795524

0.162355

0.219557

0.0828673

0.134146

0.103823

-0.0972722

0.229075

0.107204

0.0319629

-0.123257

-0.0183337

0.00293661

0.00186678

0.160277

0.241886

0.205098

-0.0463246

-0.0288703

0.12398

-0.0267292

-0.0626692

0.19155

-0.00225706

0.0503806

0.0740532

0.057093

0.0461456

0.140745

0.00792539

-0.027897

0.262961

-0.0534256

0.10391

-0.0956677

-0.0576218

0.18601

0.106806

0.0831425

0.373661

0.29771

0.0711926

0.101134

0.0751824

0.0916695

0.0874509

0.18895

0.14587

-0.130963

-0.0147316

0.0256246

0.146309

0.376202

0.006208

-0.0681812

-0.0781831

0.0282545

0.00476239

0.180291

0.0691306

-0.116603

0.103395

-0.0810984

0.098986

0.107713

0.0865256

-0.0254913

-0.00961944

0.0677244

0.0378945

0.085204

0.0583205

0.257866

-0.067682

-0.136581

0.106871

0.263768

0.016525

-0.0916075

0.00648672

0.353667

0.159402

0.00158024

-0.0830774

-0.0559927

0.124226

-0.0989678

0.0181093

0.0387556

0.197678

-0.0101477

-0.0489602

0.000767422

0.215797

0.225509

0.191367

-0.0883666

0.19651

0.0263441

0.136727

0.265401

0.184305

0.194556

0.0552651

0.360916

0.176782

0.210923

-0.026586

0.0754806

0.195356

-0.00788147

0.0252095

-0.000994343

0.0250374

0.117391

-0.0943464

0.117543

0.430844

0.00895325

0.027802

-0.00507185

0.119299

0.031507

0.122704

0.0834797

0.147675

0.1492

0.0460001

0.121016

-0.13389

0.191622

-0.000302192

-0.147978

0.252027

0.0465628

0.0359207

0.0624708

-0.061538

-0.0929963

0.00463571

0.0147869

0.150539

-0.0841315

0.0984197

-0.0801519

0.183694

0.0510126

-0.0557839

0.148626

0.0151104

0.0479847

0.112417

0.0289314

0.147588

0.201625

0.0275227

-0.170563

0.150149

0.0462725

0.0295601

0.0832233

0.162022

0.053992

0.00727483

0.129263

0.181849

0.0531744

0.167719

0.105717

-0.131914

0.169914

-0.090983

-0.145585

-0.0390639

-0.0399677

0.0892642

0.286838

-0.0354341

0.0549053

-0.131975

-0.171998

0.0272253

0.186604

0.138883

0.17876

-0.0763756

-0.072996

0.245947

-0.0184524

-0.163738

0.22278

0.180968

-0.11721

-0.0277858

0.0082077

0.181152

0.185909

0.256161

0.0994183

0.0457004

0.142306

0.171045

0.256559

-0.114872

0.176789

0.123589

0.0366175

-0.0962143

-0.0345575

0.170578

0.0576928

-0.0169015

0.145891

-0.152431

0.0438179

0.178242

0.205185

0.0687957

0.00285145

0.0490097

0.390145

0.321298

-0.0704125

0.266715

0.19639

0.0300588

-0.133532

0.0302713

0.0504938

0.0497158

0.122786

0.0187123

0.464263

0.00140749

0.118871

0.0969584

-0.0164751

-0.00222484

0.311674

0.0239737

-0.00215011

-0.101302

0.0619451

-0.0492943

-0.0711119

0.0377446

0.0802788

0.148197

0.181964

0.23115

0.0424093

-0.257674

-0.0562676

0.103964

-0.0166016

0.195115

0.0351475

0.0217188

0.0578376

0.0580377

-0.0426432

0.174026

0.109397

-0.0683224

0.0145864

0.0560117

0.0389027

0.196625

0.0207739

0.189524

0.0625071

-0.057147

0.0153477

0.0657063

0.0151427

0.232373

0.15099

-0.0202435

0.235755

0.0878039

0.0105642

0.0241914

-0.0751222

0.0365296

-0.209689

0.100951

0.0163619

0.0485877

0.082387

0.0130942

0.0490323

-0.0555915

0.0151724

0.020581

0.0459654

-0.0505885

0.109291

-0.203224

0.00896407

-0.109376

0.0354871

-0.0187405

0.0349491

0.211645

-0.0669161

0.0667777

0.0811031

0.157516

0.0919544

0.0128921

0.00677945

0.0501113

-0.0142897

0.298723

-0.0401155

0.120915

0.100401

-0.012451

-0.0845224

-0.0208064

0.0158782

0.0479135

0.285023

0.0354992

0.142146

-0.0418391

0.16881

0.146034

0.0381463

0.177765

0.259256

0.0418598

-0.101602

0.0487332

-0.12158

0.32933

0.274444

0.198351

0.0197763

0.00481063

0.0862386

0.0836287

0.146634

0.0350693

-0.00680217

0.061158

-0.0760427

0.27116

-0.0597232

0.0237988

0.0885372

-0.0144601

0.0603555

0.0807646

0.0936215

0.0270238

0.0917179

0.242896

-0.0846366

0.084425

0.194684

0.0185457

0.340956

0.141951

-0.0260472

-0.0844867

0.135304

0.184315

0.249154

-0.0565601

-0.0484316

0.14796

-0.0906906

0.321518

-0.134145

0.0794249

-0.113267

0.0172269

0.0154377

-0.0841234

0.0387379

0.0260466

0.189128

-0.00990885

-0.160961

0.055953

-0.0693392

0.165055

0.00679822

0.116086

-0.0379863

0.175927

0.143471

0.0263439

0.110306

0.000719891

0.0299145

-0.0179784

0.22981

0.180446

-0.0565581

0.0304292

-0.0325272

0.142325

0.0872993

-0.166517

0.136523

0.129245

-0.0295557

0.0265752

0.00814121

0.0468786

0.179124

0.108927

0.0422382

-0.169814

0.17577

-0.162246

0.0423381

-0.16927

0.323891

0.00226194

0.153213

0.166369

0.0169645

0.0635448

0.0792658

-0.0146617

-0.00744179

0.118189

-0.181876

0.00292539

-0.0157937

0.0144468

0.0411741

0.0589725

-0.0255715

0.0122447

0.059626

0.192288

0.23412

0.0918746

0.155086

0.0973314

-0.0663029

0.0155495

0.0907569

-0.0883516

0.0220309

0.283871

0.17483

0.162017

-0.0296379

0.0333362

-0.000880211

0.174222

0.065059

0.00887112

0.0567649

0.0401519

0.396026

0.0574591

0.124239

-0.285027

0.0568482

0.154625

0.229281

0.0518547

0.0156054

-0.0311436

0.241507

0.080972

0.131299

0.0168206

0.0710837

0.175029

-0.0604209

0.071562

0.165886

0.0588654

0.353674

0.29533

0.0719483

0.0375846

0.0364894

0.241174

0.0405441

0.019899

-0.0534494

0.0876842

-0.00244736

0.217471

-0.189397

0.0930283

0.155011

0.180538

0.0525006

-0.00439667

-0.00319501

-0.151764

0.162495

0.220918

]