[0.722275

-0.485727

0.405659

0.141624

0.492161

-0.279326

-0.202694

-0.0496965

0.0665401

0.202048

-0.0895945

-0.0833486

0.327733

-0.200421

-0.0538606

0.27055

0.130291

0.196328

-0.252857

-0.0622169

0.115858

-0.050143

0.0338973

0.448022

0.19453

-0.306327

0.429313

0.136653

0.361418

0.0829073

0.397815

0.0838214

0.161343

0.278062

0.362608

-0.205076

0.348188

0.0263683

-0.200099

-0.0964544

0.146097

-0.236719

0.484088

-0.130049

-0.164427

0.141611

-0.000131497

0.0686112

-0.0947042

0.360556

0.191607

0.0977338

0.266067

-0.235806

0.040923

0.843295

0.618163

0.133147

0.536516

0.409416

-0.000916257

-0.214246

0.139836

0.0937859

-0.205198

-0.0205397

0.0298401

-0.0924248

-0.161133

0.176109

-0.0156879

0.14975

0.0904875

-0.212406

-0.0728623

-0.131781

0.77249

0.184044

0.0310842

-0.195883

0.282145

0.551785

0.217265

0.080697

0.236151

-0.0942975

0.382222

0.148236

0.342457

0.566314

-0.223618

0.131883

0.183777

0.412115

-0.137912

-0.104388

-0.0388077

0.316437

-0.0200462

0.245524

0.353285

0.573477

0.24463

-0.185284

0.283613

0.0476369

0.240839

-0.298223

0.329432

0.572227

0.243652

0.0698274

0.162973

1.80098

-0.150153

0.0194071

0.0328509

1.25854

0.291632

0.850403

0.0774229

0.255392

0.122098

0.679605

0.222072

-0.0394549

0.134501

0.170585

0.111919

0.0715912

-0.13666

-0.293649

0.00891551

0.465249

-0.038521

0.0422914

0.280143

0.10436

0.222761

0.545291

0.0668711

0.0407288

0.00550387

0.204389

-0.309013

-0.0150819

0.251473

-0.202441

0.149438

0.507246

0.0710347

-0.0178528

0.0629314

0.177253

0.313336

3.21946

0.311703

0.177008

0.188546

0.146167

0.172553

-0.107479

-0.340572

0.905691

0.125896

0.0382212

0.756928

-0.201583

0.222577

0.31602

0.228485

0.503475

0.502207

0.20337

0.143501

0.280286

0.0143672

0.0361283

-0.0463626

0.0759845

0.0692552

-0.126606

0.106188

-0.0353279

0.0292206

0.319243

0.504919

0.333415

-0.0353424

0.11012

0.15181

-0.0899818

0.120206

0.260293

0.121488

-0.125916

0.2602

-0.0197141

0.0803321

0.711622

0.089025

-0.28175

0.286545

-0.127931

-0.0407373

-0.00393118

-0.01943

-0.0455332

-0.0551192

0.346531

0.0750939

-0.13161

0.0717901

0.625203

0.160747

0.251723

-0.00104717

0.0949825

0.234422

-0.256232

-0.0773087

0.134393

0.0768005

-0.130344

0.0637747

0.532797

0.447602

0.180557

-0.239666

1.40082

-0.232325

0.134756

0.116698

0.265894

-0.0166935

-0.00877534

0.0771185

0.0590046

0.170048

0.0916879

-0.0439557

0.257094

0.200301

0.00409867

0.222245

0.0411738

0.155765

-0.0228157

0.412461

0.226471

0.222648

-0.0176503

0.162465

0.19373

0.933706

0.219754

0.293473

0.190648

0.0435435

0.387626

-0.0461391

0.238695

0.679662

-0.0914209

0.400232

0.0847704

-0.052541

-0.383144

-0.184271

1.17907

0.0336352

0.428114

0.104772

-0.17675

0.271211

0.465266

0.462674

0.258921

-0.0358421

0.0589997

0.125621

-0.15427

0.249416

0.186354

0.15278

0.282552

-0.0852558

0.0679632

-0.256192

0.321899

0.00916462

0.408893

0.404607

0.113143

0.194497

0.185637

0.0402682

0.0821256

0.80683

-0.129392

0.0845362

-0.181626

0.192709

0.326433

-0.0950241

0.192887

0.051839

0.030844

0.0309437

0.0163165

-0.141829

-0.101099

0.42649

0.339598

-0.20397

9.61126

0.189535

0.194115

-0.0626493

0.365335

0.364728

0.349886

0.231973

-0.114429

-0.060345

0.803339

0.572589

-0.0517213

0.65917

0.377336

-0.228813

-9.83753e-05

-0.0781081

-0.0875151

0.279225

0.186713

0.1387

-0.0306528

0.621975

-0.202805

0.120145

0.107257

0.305189

0.455152

0.00644636

0.0921588

0.318286

0.34503

-0.215108

0.166365

0.375983

-0.0218914

0.971105

0.394517

-0.127288

-0.108092

-0.00707167

-0.0472828

-0.178108

0.129161

-0.073943

0.0442817

-0.128583

0.249851

-0.225613

0.350456

-0.175564

0.474397

0.125791

0.830607

0.211163

0.810315

0.555721

-0.227393

-0.261806

0.133105

-0.226741

0.316392

-0.0548306

0.0884079

0.101516

0.385605

0.766142

-0.109578

-0.0354203

0.0209248

-0.00243341

0.270198

0.131319

-0.124972

0.665526

-0.372702

0.589612

0.350746

-0.0667667

0.177848

0.156655

0.128337

0.181074

-0.113362

-0.0938486

0.0838589

0.421325

0.319768

-0.420744

0.42626

0.0783938

0.217157

0.249741

0.125984

0.148236

0.14225

-0.0944615

0.202905

0.749371

-0.0292153

-0.0467739

0.561908

-0.210342

0.0525379

-0.115156

-0.190195

-0.00506594

0.103586

0.14164

0.205909

0.366698

-0.0531973

0.225191

-0.110678

-0.372319

-0.0500555

0.407862

0.0827672

0.38012

-0.454801

0.287997

0.0489705

0.525679

0.0032158

0.353066

1.04941

-0.0454382

-0.0694192

0.34788

0.387301

-0.159031

-0.128511

0.230485

0.158927

0.0336801

0.530625

-0.0558851

0.309004

0.229216

-0.190034

0.0503841

-0.012557

0.410719

-0.0752957

-0.0845761

0.114651

0.17694

-0.0634502

0.272806

-0.15245

0.162378

0.028392

0.145617

0.196147

-0.00213931

-0.00312942

0.38749

-0.119033

0.381732

-0.201399

-0.243348

0.383128

0.0605488

-0.180147

0.219377

-0.00283815

0.384167

0.317339

-0.247447

-0.0240768

0.366278

-0.218434

0.302993

-0.129465

0.197662

0.285002

0.0991021

0.0366666

0.330499

0.194533

0.290625

0.252943

0.361161

0.32265

0.453918

-0.00868475

1.30554

0.212237

0.208716

0.210466

0.0792044

0.334364

0.000449508

0.137102

0.781435

0.0221688

]