[0.0842536

0.0619479

0.0269964

-0.000544604

-0.000446941

-0.0331828

0.00451437

0.014606

-0.0109194

0.0445395

-0.0108143

0.092948

0.00126754

-0.00355794

0.000201857

-0.0430165

0.00890126

0.146612

0.0426284

-0.00445561

-0.00555618

-0.0147108

0.0390973

-0.00471199

-0.0275951

0.0724955

0.0395828

0.027009

-0.0114354

0.046472

0.0151366

-0.00684536

0.0757618

0.0160828

-0.00151469

0.0481951

0.0147668

-0.0223253

0.0784221

0.0360974

-0.0324396

0.0499289

-0.0493246

-0.0167438

-0.0398979

0.0120318

0.144503

0.0791191

0.0802387

-0.0915563

0.0032607

-0.0135012

0.0317204

-0.00642875

0.000900254

0.0128406

0.0894117

-0.0270816

-0.0123529

0.106995

-0.0133265

0.0696208

0.179736

0.00315125

-0.0201041

-0.0344001

-0.0209711

0.0221114

-0.00389931

0.0305966

-0.00352547

0.0030659

-0.0486579

-0.0108347

0.00630346

0.0513514

0.00494265

-0.0530328

-0.00126487

-0.0281241

0.00572262

0.0465964

0.0552662

0.0434586

-0.0183086

-0.00687785

0.00277453

-0.0129057

0.0102698

0.0915666

0.00713241

0.0100404

0.0738621

0.0170562

-0.0408596

-0.0556793

-0.0103208

0.0326336

0.173644

-0.00523391

0.0189324

0.00518138

0.00312399

0.0372036

-0.0618793

0.0191424

0.0102729

0.00454662

-0.00305795

0.0471276

0.0648312

-0.017825

-0.030181

0.0379881

-0.0039632

0.0316277

-0.0264445

0.00823758

0.085858

0.0773988

-0.0418422

-0.0266752

0.0363045

0.00467541

0.0411112

-0.0138601

0.0286123

0.0127716

0.0615874

-0.00909573

-0.00354893

0.0168904

-0.0190389

0.00436334

-0.0118464

-0.00504617

0.105686

0.0291994

-0.00816589

-0.00787127

0.032195

0.0420872

-0.0406544

0.00444849

-0.0441475

-0.000991593

0.0578887

0.0109716

0.00304254

0.0290407

-0.010809

-0.0306675

0.0311701

0.0286832

0.0453576

0.14472

-0.00246301

0.0107229

0.0398734

0.00867109

0.054933

-0.00239243

0.155449

0.08487

-0.0148958

0.0139656

-0.0402225

-0.00481256

-0.0236328

-0.0216163

-0.0196294

0.0143658

-0.0165517

-0.0218059

0.00830837

-0.0316001

0.0545321

-0.0108919

0.102442

-0.0386113

0.0756134

-0.000989331

0.00156232

-0.0128351

-0.0148077

0.000510746

-0.0282671

-0.0173798

0.138406

0.0417171

-0.0114298

0.00776605

0.134103

0.0348918

0.152212

-0.029134

-0.0203207

-0.0040642

0.135745

-0.00160008

0.0550268

0.00544914

-0.000690072

-0.0183787

0.0129589

0.0400787

0.0782685

0.00827202

0.0671214

0.025732

0.0163143

0.0350215

-0.00353122

0.0937316

0.0552348

0.0258131

0.0295899

0.0326551

0.0105767

0.08276

-0.0222514

0.00961063

-0.00168177

-0.00289375

0.0301612

0.0224751

0.0881715

-0.0101021

-0.0012964

0.250173

0.0393316

0.132307

0.00490036

-0.0211701

0.000986318

-0.00570879

0.00873844

0.023137

-0.0400505

-0.00953219

-0.0245186

0.0620383

0.0470741

-0.00771888

0.00591631

-0.015619

0.012161

-0.00863085

0.0162943

0.0429857

0.0615769

0.00621057

0.047123

0.0270974

0.00164253

-0.0167788

]