[0.00436518

-0.0094778

-0.00375432

0.0194299

-0.0155595

0.00070522

-0.0056886

-0.00654538

0.0109043

-0.000675014

0.0133259

0.017436

0.00438439

0.0197016

0.0189518

-0.0151583

0.00644436

-0.00148791

0.00407076

-0.00205075

0.00714288

0.0337999

0.0276525

0.0111224

0.0219138

0.0455449

0.0118554

0.0238209

0.0149504

3.31208e-05

-0.00535244

-0.017405

0.00990915

0.000591329

0.00296254

0.028592

0.0394612

-0.000583733

0.0248053

-0.00481307

0.00884361

0.027643

0.0120674

0.0188746

-0.00953945

0.058063

0.0088035

0.00474143

0.0160037

0.0529689

-0.00230365

-0.0013214

0.0250414

0.0117603

0.033454

-0.00752562

-0.00190123

0.010004

0.0297705

0.00178145

0.01328

0.00603386

-0.0203126

0.00556138

0.033085

-0.00332663

0.00697227

-0.00250093

0.0143551

0.00935221

0.0272325

0.00686826

0.0276409

0.0165281

0.00299098

0.0111159

0.00159077

-0.0551157

0.00303799

0.00654934

0.0744016

0.00826091

-0.01269

-0.0125981

0.00383349

0.0293828

0.0816566

0.0151759

0.00726904

0.017188

-0.0139476

-0.0106959

0.0135916

-0.0224784

0.00128065

-0.00962377

0.019362

-0.00851988

0.0376013

0.0433518

0.0534081

-0.0330126

0.0196828

0.0149768

0.00957746

0.0279474

0.0844886

0.00941544

0.00453985

0.0604275

0.000897586

0.0270101

0.013871

0.0094095

-0.0298659

0.0287888

-0.0139197

0.0142315

0.0469797

0.0345131

0.0272675

0.0202835

0.0193793

0.00347587

-0.00235168

0.00506251

-0.0157295

0.0204624

0.000794763

0.0108629

0.0173223

-0.00618206

-0.000705275

0.0333058

-0.0074179

0.0163961

-0.0124431

0.0450315

0.0131666

0.00967972

0.0164332

0.0106915

0.00226272

0.00216763

0.026468

0.000275131

0.0190728

0.0234825

-0.00819291

0.00273977

0.0532404

0.0173724

0.000917158

-0.00350326

0.00781825

0.029665

-0.020175

0.00463645

0.0165903

0.0154248

0.0390913

0.0115202

0.00758975

-0.00264525

0.0162064

0.00517506

0.0172911

0.0184952

0.0140946

0.0143238

0.00388955

-0.020509

0.00540773

0.0138757

0.0179102

0.0123355

0.00527041

-0.0268799

-0.00561995

0.00913498

0.0283564

-0.00682466

0.00795349

0.0228897

0.0192849

0.012559

0.00861362

0.00762557

-0.018337

0.0236452

0.000836981

-0.00129817

0.022204

0.00353103

0.0245981

0.0290459

0.00516757

-0.00934662

0.00176482

-0.000741132

0.00364422

0.0143615

0.00338229

0.0020074

0.0300279

-0.032557

0.0366251

0.0216199

0.0199334

0.0701817

0.0431012

0.0027317

-0.00168747

0.0228195

-0.00239084

-0.00847503

-0.00263791

0.0320181

0.042019

0.0279368

0.0114629

0.0180674

0.0118903

0.0207653

0.00627611

0.000293845

0.0110085

0.0170985

0.00356358

0.0230151

0.00295575

0.0375773

0.0494616

0.0112219

0.0415513

-0.00552545

0.00418365

-0.00157661

0.00779982

0.00773331

-0.0112492

0.0369766

0.0516061

-0.000409815

-0.00529512

0.00623038

0.0693657

-0.00281219

0.00587246

0.0110485

-0.000320827

0.0124828

0.0166376

0.0227011

-0.0211264

0.00516473

0.018121

-0.00160206

0.0422013

0.00352278

0.00496891

0.0255323

0.0120605

0.0456743

0.0669631

0.00835367

0.0015795

0.00566119

0.00884222

0.00525089

0.0180066

-0.0118312

0.0155857

0.0280649

0.0563061

0.00597997

0.0203453

-0.00400263

-0.00650117

0.009216

0.00491541

0.0314385

0.00212805

0.0116314

-0.00766848

0.00351153

0.0100083

0.0218796

-0.0131504

0.0218397

0.0185194

-0.00294055

0.028065

0.0155799

0.0226997

0.0246403

0.0149676

0.00352525

-0.00220146

0.00674545

0.0154697

0.0234666

0.0129836

0.0245056

0.0117666

0.00875974

-0.00623329

0.0207758

-0.00359366

0.0203695

0.0320523

0.0421832

-0.0045668

-0.00655045

0.0494198

0.00554963

0.00738013

-0.00421103

-0.0119358

-0.00784013

0.0175934

0.027561

0.00760773

0.0360113

-0.00446742

-0.00111802

0.00203657

0.00181844

0.0239013

0.00967806

0.0158564

-0.00543142

0.00692848

-0.0021387

-0.00461764

0.0143578

0.00224927

0.00919988

0.0150662

0.00483703

0.0178873

-0.00354821

0.0312239

0.0391957

-0.000142504

0.0235118

0.01903

0.0263805

0.0157617

-0.0176509

0.0375894

0.00863725

0.0160201

0.0293404

0.00784914

0.0183293

0.0211341

0.00812313

0.03138

-0.000394738

0.0050796

0.0220383

0.0145535

0.0342953

0.0395224

0.0202832

-0.0103617

0.00933269

0.00554656

0.00466062

0.00378327

0.00114247

0.0184756

0.0115477

0.0321623

0.0112094

0.0143142

0.0181136

0.0115085

0.0142723

0.0260182

0.0202597

0.00570786

0.00686006

0.0500941

0.00237244

0.0104809

0.0289584

-0.000665385

0.0362833

0.02602

0.00641353

0.0183327

0.0379465

0.0281803

0.00642956

-0.0082124

0.0137923

0.00180054

0.0121526

0.00887305

-0.00162343

0.0135636

0.00809822

0.0202423

0.00322914

-0.000612851

0.0115182

0.0193421

0.0114967

-4.05196e-05

0.00765078

0.00220345

0.0229365

0.0289937

-0.000975092

-0.0565751

0.0439061

0.0325256

0.0181701

0.0221754

-0.00865077

-0.00353946

0.0150404

0.0104615

0.0348025

0.0306156

0.0127947

0.111285

0.0101791

-0.0083065

-0.00410456

-0.00697953

0.0187664

0.0132628

0.0328247

0.0343097

0.00960594

-0.00530196

-0.00338676

0.0156508

-0.00706146

0.0227596

0.009621

0.0143845

0.0233156

-0.0136166

-0.0151498

0.0379766

-0.014724

0.0391351

0.0129911

0.0171105

-0.0106518

-0.0086927

0.00974788

-0.00131361

0.038626

0.0267475

0.000591439

-0.00270286

0.0416822

0.00328754

0.00207481

0.0246131

-0.00639409

0.0126091

0.00772142

0.00674206

0.00337679

-0.0137427

0.0184431

0.0380188

0.0260648

-0.0121508

0.0128715

0.0049122

0.0164497

0.0109055

0.0383561

0.019271

0.030592

0.0106587

0.0107367

0.0170569

0.00662242

0.0196052

-0.0045018

0.0117887

0.0394158

0.00982234

0.0100981

0.00980296

0.0213054

0.0419315

0.0239078

0.0280007

0.00535849

0.00728634

0.0162451

0.0426174

0.0137216

0.00924921

0.0309415

0.0072844

0.00129745

0.035893

0.00823472

0.0362315

0.0347662

0.0125856

-0.0296111

]