[-0.0564365

-0.104568

0.0154377

0.0665572

-0.085497

0.206118

-0.128333

-0.0300774

0.0270084

0.0994096

0.0970944

0.0426668

-0.0567679

0.0916364

0.133136

-0.0438833

0.0508657

0.0769715

0.00550167

0.0498084

-0.0143398

-0.0609941

-0.0144891

-0.0366045

-0.0789142

0.0644763

-0.0109513

0.0379595

0.0981101

0.00951719

0.207243

0.0902785

-0.0716727

0.189442

0.0144055

-0.0136313

0.275866

-0.0855789

0.00101315

0.117926

0.0385885

-0.0449336

-0.0123836

0.0431803

-0.0237851

0.255352

-0.0606636

-0.0337548

0.00424323

0.0683897

-0.0707212

0.00663137

0.0719409

0.0390971

0.0336722

0.0653037

-0.00733085

-0.0478367

0.0647311

0.00791633

0.05443

-0.11071

-0.032169

0.0376636

-0.0497612

0.0375683

0.00174834

0.0902294

-0.055996

0.0664826

0.170261

-0.10407

0.183081

-0.0714371

0.0859624

0.063497

-0.10723

0.0681196

0.0769575

-0.0195838

-0.0952628

0.110902

0.045319

0.101569

-0.0533267

-0.0473457

0.232041

0.119386

0.00026079

0.0740368

0.166223

0.173635

-0.0403593

0.0212207

0.0565496

-0.0994749

-0.0867199

0.143705

0.012227

-0.0327895

0.00342217

0.311541

0.029054

-0.0821655

0.134357

-0.0169231

0.1948

0.0151733

-0.0774851

0.0801839

0.1404

0.0789695

0.0705923

0.147459

0.213947

0.000999171

-0.0561603

0.00351249

0.178872

-0.0282439

-0.076619

-0.0295545

0.121605

0.0915087

0.0533865

0.0263893

-0.0425753

-0.0152366

-0.0638859

-0.0945005

0.00109995

0.0371476

0.188029

-0.0213252

-0.0109535

-0.0116357

0.0443595

0.0398937

0.00482185

-0.0422079

-0.0282494

-0.0213086

0.163877

0.0120605

0.114707

-0.0170908

-0.0713888

-0.0225174

-0.0364468

0.0640368

0.00491182

-0.0570112

-0.00588898

0.0439479

0.197234

0.060324

-0.0184341

-0.00905243

0.0316423

0.00751088

0.0958952

0.0928379

0.0440851

0.169595

0.0293789

0.0732074

0.00989568

-0.0440483

-0.00718469

0.00636024

0.0214871

0.033266

-0.00794326

0.115424

-0.0978663

-0.0244186

0.0927834

0.0284953

-0.0479657

0.0177527

0.0864064

-0.0281592

-0.00396533

0.191199

0.009586

0.0337798

0.0631324

-0.00742192

-0.066375

0.153611

0.0404718

0.0327156

0.092764

0.165699

0.0517595

0.0530979

0.169041

-0.0152617

0.0641953

0.13667

0.0854187

0.0998326

0.0978306

0.240498

0.0495183

0.110896

0.102444

-0.0370607

0.0114949

0.0854375

-0.0468943

-0.116088

0.0547193

0.0466739

0.000250554

0.0248887

0.172079

-0.020569

-0.0677106

0.0550735

0.0633999

0.0163567

0.0380643

0.00287359

-0.0332253

0.114129

0.0184827

-0.0652106

0.149025

-0.0101565

0.151877

0.00570643

-0.00450723

0.121797

-0.0193453

0.044788

0.0529979

-0.0231381

0.105113

0.0139002

0.0403329

-0.0184194

0.0373095

0.0691442

0.0200418

-0.0127573

-0.0085507

0.142967

0.00952194

-0.0432723

0.0719606

-0.0725646

-0.0144683

-0.104451

0.167817

-0.0671809

0.0476588

-0.0404825

0.0665517

0.0478751

0.0494466

0.0922653

0.0196431

0.0171595

-0.033753

0.0290278

-0.0384497

0.0477634

0.0643351

0.0605809

0.0273582

-0.0093329

-0.0153995

0.0990873

0.0833273

0.0475242

0.0674269

-0.0211551

0.0270724

0.128018

-0.0549041

0.0774162

-0.028575

-0.113861

0.00769061

0.00799982

-0.0249054

-0.00328431

0.0382024

-0.0017207

0.1482

-0.0170738

-0.0436876

0.0668582

-0.000874542

-0.0175301

-0.0317718

0.0611631

0.0745427

0.0926487

-0.0294842

-0.073249

0.107304

0.0408641

0.0885849

-0.030166

0.170726

0.0397259

0.021135

-0.0403022

0.0108315

-0.0216144

0.0416594

0.0303004

0.0283605

0.0994322

0.0209607

-0.0130459

-0.042667

-0.00278041

-0.0472074

0.0483166

0.0310927

0.0496125

-0.0619438

0.0185345

0.0844718

0.0122577

-0.0264485

-0.00172991

0.101627

-0.0253751

0.0024311

0.000976255

0.0905387

0.0347391

-0.0315211

-0.0274958

0.0424555

-0.0166544

0.0845507

-0.0451718

0.0121267

0.121393

-0.010627

0.0519394

-0.0941142

-0.0009011

0.0946196

-0.00807436

0.115637

-0.0984424

-0.0404613

-0.0244582

0.0634828

-0.0940722

-0.0334069

0.0152794

0.0119277

0.0966748

-0.0871906

-0.00572161

0.102251

-0.0200599

0.181483

0.0199972

0.0718847

-0.0457594

0.0472945

-0.0971341

0.0773283

0.0231175

0.0386915

0.159879

0.148665

-0.0883516

0.00566281

0.0259861

-0.0503538

-0.0792349

0.0735327

-0.0460275

0.0137543

0.120709

-0.00798393

-0.0699064

0.024954

-0.100567

-0.0332482

-0.0125346

-0.0701077

-0.0254645

-0.0382715

0.0107802

0.0879226

-0.0437501

-0.0495663

-0.0674759

0.0295212

-0.0128292

0.0199929

0.11469

0.0140485

0.0467564

0.0285604

0.192815

-0.0689315

0.273037

0.0365817

0.0960164

0.0243487

0.140838

-0.0857109

0.0115165

0.0381053

-0.0230764

0.0560131

0.0561299

0.0776346

-0.060176

0.00587122

0.0726133

0.111617

0.0676155

-0.0497375

-0.0493174

-0.0692168

-0.0307291

0.0230999

-0.113547

0.00338609

0.146889

0.118721

0.105116

-0.069103

0.0317635

0.102401

0.0864559

0.14674

-0.0234469

0.0263942

0.0953294

0.221411

-0.00876675

0.276654

0.050241

-0.134943

-0.0365494

0.070993

0.113421

0.0419649

-0.0672572

0.0240403

0.0560986

0.0140919

-0.0057734

0.0153916

-0.0858971

0.0894645

0.0533377

0.102994

0.0433051

-0.0846954

0.040149

-0.0664579

0.00205864

0.14729

0.0556972

-0.023901

-0.0852676

0.0082349

0.0473241

0.053236

-0.0232605

-0.0852418

-0.0731491

0.0260367

0.0205198

0.050689

0.0725107

0.071753

-0.028357

0.159875

-0.0285792

0.230035

0.198975

0.0446074

0.138795

-0.0187923

-0.0344624

-0.0269289

0.0793419

-0.112974

-0.056684

0.0040946

0.00949022

0.0354157

-0.0650671

0.147037

0.0894605

0.0111625

0.0177833

0.0392647

0.0285638

0.109316

0.113798

-0.0282892

-0.111114

0.0484089

0.0399326

-0.12126

0.0230712

]