[0.0234277

0.0182496

0.0275865

-0.0147146

0.0528952

-0.00403638

0.0182302

0.0100024

-0.00698514

-0.0184428

0.00762132

0.0407201

0.0320911

0.00797623

0.0104567

0.000138694

0.0421522

0.0317861

-0.021649

0.0114893

0.0302408

-0.00460402

-0.0210941

0.00615633

0.00231992

-0.00182073

0.0319514

0.0181935

-0.00243996

0.0410522

0.0187461

0.00626763

0.00536182

0.0041631

0.0266097

0.0180772

0.0013028

-0.0266926

0.0159968

-0.0034875

-0.00228101

0.000464103

0.00810055

0.014574

-0.0151464

-0.00121449

-0.00576911

0.0141251

-0.00246375

-0.00785703

0.00196512

0.0186354

0.0250874

-0.0352883

0.00582421

-0.0144246

0.0720867

0.0194947

0.00762124

-0.0326148

-0.0151641

0.0427625

0.0707109

0.0236387

0.0371893

0.0289146

0.0207162

-0.00865548

0.0593393

-0.0270092

0.0108539

0.0220646

0.0295501

0.0218375

0.0356489

0.0259053

0.000854872

0.0198336

0.00264707

0.0215794

0.000582522

0.00224338

0.0205759

0.037585

0.0431983

-0.00716524

-0.00715839

0.0336602

-0.00518318

0.0170226

0.0112671

0.0307923

-0.00267

0.0317587

0.00543901

0.00487646

-0.010274

0.0017378

0.065705

0.0228835

0.014035

0.00425519

0.0240486

-0.00197128

0.0202576

-0.0151469

0.00606405

-0.000235823

0.00179829

0.0320688

0.0297002

0.0173643

0.0145386

0.0440822

-0.013857

-0.00169742

0.0128329

-0.00417995

0.00352295

0.0136853

0.0160484

-0.0083128

0.0429168

0.00832866

-0.00140586

0.0114815

0.0169369

-0.00358622

0.0804089

-0.000863208

-0.0124496

0.0187963

0.0133528

0.0018898

0.0395435

-0.00205932

0.0117866

0.00601772

0.00825491

0.03669

0.0125729

0.0323044

0.0101975

0.046609

0.003849

-0.00229415

0.00128081

-0.0166123

0.032854

0.0164317

0.0140248

0.0225175

-0.0127207

0.00653165

0.00101709

0.00408228

0.00796729

0.0684313

0.00600337

0.00407706

0.025324

0.0165555

-0.00390204

-0.00932847

0.0528707

0.0313737

-0.0114497

-0.00516845

-0.00986423

0.00768171

0.0279495

0.0398814

0.0140976

-0.0048274

0.0392411

0.0129008

0.0133977

0.0517558

-0.0179906

0.00349462

0.0142754

-0.00629104

0.0105188

0.0327375

0.0413619

0.0367462

-0.00107

-0.00521983

-0.00541013

0.00539107

-0.00250449

0.0554358

0.0313836

-0.0111374

0.0193023

0.00941471

0.0127195

0.00746199

0.00307935

0.0125995

0.0240723

0.0136159

0.0257801

0.00621756

0.00224585

0.0232535

-0.0169689

-0.00142972

-0.00332697

0.0387524

-0.000119306

-0.00610454

0.00340584

0.00907783

0.0661377

0.00461748

0.0349218

0.000638586

0.0221228

-0.000375032

0.0107272

0.0129722

0.00100703

0.0184964

0.071255

0.0142575

-0.00361015

0.0380878

0.000690408

0.008799

0.0165421

0.0121004

0.0501783

0.0221166

0.0010814

0.00352058

0.0515736

0.0353272

0.0143517

0.0198617

0.0210636

0.00584015

-0.0018734

0.0417331

-0.000561857

-0.00850466

0.0160804

0.0150612

0.0416793

-0.00628261

-0.0200591

-0.00880724

0.00152608

0.0164981

-0.0146131

0.0191549

0.0225148

0.0027501

-0.000237481

0.0511785

-0.00527974

0.00492186

0.0458947

0.0322688

0.0115012

0.016292

0.011888

0.00664184

0.0172861

0.0460399

0.0208879

0.0143711

0.00589368

0.0141273

0.0154912

0.0480319

-0.0069377

0.00246698

-0.0244543

-0.014392

0.0137534

0.0393136

0.0071646

0.00285231

-0.0151341

0.0145519

0.0254908

0.0033267

0.0294433

-0.00696541

0.00863076

0.0176866

0.00280563

0.0519748

0.00880865

0.0023394

0.000755985

-0.00681537

0.00335046

0.00118133

0.0121261

0.00713298

0.0201567

-0.0128302

0.00961556

0.0151771

0.00537631

0.0163825

-0.00308081

0.0752189

0.00707006

-0.00616095

0.0357526

0.0165183

0.00245436

0.00679109

0.0365792

-0.0122123

0.00755358

0.0035949

0.00983984

0.0311015

0.0156056

0.0383349

-0.0142117

0.0118381

0.00276207

0.0326638

0.0232566

0.0255681

0.0331962

0.0364745

-0.00703224

-0.01116

0.0393874

0.00817839

0.0418257

0.0216357

-0.0135773

0.0436282

0.0195793

0.0145005

0.00347071

-0.00352471

-0.0224536

0.014201

0.0142234

0.0395496

0.0578995

0.0176297

0.000887881

-0.00505746

0.0210051

0.00970779

0.0407577

0.00186098

0.0318821

0.00210545

-0.00435664

0.00309834

0.00213366

0.00417045

0.0108854

0.00971393

0.063025

-0.00702754

0.0220087

0.0167423

0.0147059

-0.00275444

0.00185615

0.00429394

0.00231331

0.0010425

0.0215721

0.0165248

-0.0111187

0.081905

-0.00868903

0.0249706

0.0278154

-0.0033935

0.0281117

-0.000469993

0.00299959

0.00872742

0.0265413

0.0184765

-0.0269373

0.0152027

0.0255971

0.0137952

0.0254361

0.0225821

0.0194825

0.0241374

0.0252875

-0.0211646

0.0805136

0.00338751

0.0062904

0.00280095

0.00475553

0.0165453

0.0143383

0.0302929

0.0149535

-0.0109736

-0.00264342

0.0287163

0.0152789

0.0442391

0.0190939

0.026594

0.0166467

0.000410347

0.00638239

0.0183103

0.0463943

0.0148908

0.051377

0.0180651

0.0296346

-0.00286474

-0.00531285

0.029582

0.0773427

0.00346085

0.0175041

0.0284789

0.00203387

-0.0108732

-0.0181295

-0.0196924

-0.0334074

0.0108451

0.00384829

0.0111532

0.00431003

-0.0173201

0.0268918

0.00840558

0.0136368

0.00488551

0.00766838

0.0106467

0.0110076

0.00434232

0.00174916

0.0271787

-0.00720623

0.0136554

0.0184672

0.0061036

-0.0060201

0.0725208

0.0477315

-0.000892278

-0.026855

-0.00264464

0.00308481

0.0184508

-0.00264274

-0.0154909

0.0182458

0.0331835

0.00642197

0.0171672

0.00988516

0.00334499

0.0161281

0.052213

0.0101981

0.00271487

0.031086

0.0183906

0.00145655

0.0133005

0.0102882

0.0236386

-0.000550275

0.00839456

0.0593585

-0.0100762

-0.00408403

-0.00451193

0.0674241

0.0290057

0.0162218

0.0408884

0.00801383

0.00187589

0.0254002

0.0193973

0.0110403

-0.00461144

0.00512659

0.00780329

0.015613

0.0137275

-0.0188994

0.0169547

0.0302144

0.0183637

-0.0211167

0.00647465

0.0321407

0.0100482

0.0188293

0.0026976

0.00497267

0.00826632

]